Language model created by QuickLM on Sun Jun 24 10:52:29 EDT 2018
Copyright (c) 1996-2010 Carnegie Mellon University and Alexander I. Rudnicky

The model is in standard ARPA format, designed by Doug Paul while he was at MITRE.

The code that was used to produce this language model is available in Open Source.
Please visit http://www.speech.cs.cmu.edu/tools/ for more information

The (fixed) discount mass is 0.5. The backoffs are computed using the ratio method.
This model based on a corpus of 42 sentences and 57 words

\data\
ngram 1=57
ngram 2=100
ngram 3=96

\1-grams:
-0.9473 </s> -0.3010
-0.9473 <s> -0.2450
-2.5705 A -0.2999
-2.2695 ACCESS -0.2490
-2.5705 BOOK -0.2490
-2.2695 BROWSER -0.2490
-2.2695 CALCULATOR -0.2490
-2.5705 CENTER -0.2490
-1.6675 CLOSE -0.2819
-2.2695 COMMAND -0.2987
-2.2695 CONTROL -0.2987
-2.5705 DATE -0.2999
-2.5705 DEVICE -0.2987
-2.2695 EXCEL -0.2490
-2.5705 FACE -0.2999
-2.5705 FIREWALL -0.2490
-2.5705 GOOGLE -0.2490
-2.5705 HELLO -0.2999
-2.0934 IS -0.2464
-2.5705 IT -0.2975
-2.5705 JARVIS -0.2490
-2.5705 MADE -0.2987
-2.5705 MAIL -0.2490
-2.2695 MANAGER -0.2490
-2.2695 MEDIA -0.2987
-2.5705 MOVIES -0.2490
-2.0934 MS -0.2952
-2.5705 NAME -0.2490
-2.2695 NOTEPAD -0.2490
-1.4244 OPEN -0.2721
-2.5705 OPTIONS -0.2490
-2.5705 PAD -0.2490
-2.2695 PAINT -0.2490
-2.2695 PANEL -0.2490
-2.5705 PHOTOS -0.2490
-2.2695 PLAYER -0.2490
-2.5705 POWER -0.2999
-2.5705 PROGRAM -0.2490
-2.2695 PROMPT -0.2490
-2.2695 RECOGNIZING -0.2490
-2.5705 SECURITY -0.2999
-2.5705 SETTINGS -0.2490
-1.9685 SITE -0.2952
-2.5705 SONGS -0.2490
-2.5705 START -0.2987
-2.5705 STOP -0.2987
-2.5705 TASK -0.2987
-2.5705 THE -0.2999
-2.5705 TIME -0.2490
-2.5705 TUBE -0.2490
-2.5705 UNINSTALL -0.2999
-2.0934 WHAT -0.2963
-2.5705 WHO -0.2999
-2.2695 WINDOWS -0.2975
-2.0934 WORD -0.2477
-2.2695 YOU -0.2477
-2.5705 YOUR -0.2999

\2-grams:
-1.9243 <s> BROWSER 0.0000
-1.0212 <s> CLOSE 0.0000
-1.9243 <s> COMMAND 0.0000
-1.9243 <s> CONTROL 0.0000
-1.9243 <s> DEVICE 0.0000
-1.9243 <s> HELLO 0.0000
-0.7782 <s> OPEN -0.0000
-1.9243 <s> POWER 0.0000
-1.9243 <s> SETTINGS 0.0000
-1.3222 <s> SITE 0.0000
-1.9243 <s> START 0.0000
-1.9243 <s> STOP 0.0000
-1.9243 <s> UNINSTALL 0.0000
-1.4472 <s> WHAT 0.0000
-1.9243 <s> WHO 0.0000
-1.6232 <s> WINDOWS 0.0000
-0.3010 A PROGRAM 0.0000
-0.3010 ACCESS </s> -0.3010
-0.3010 BOOK </s> -0.3010
-0.3010 BROWSER </s> -0.3010
-0.3010 CALCULATOR </s> -0.3010
-0.3010 CENTER </s> -0.3010
-1.2041 CLOSE ACCESS 0.0000
-1.2041 CLOSE BROWSER 0.0000
-1.2041 CLOSE CALCULATOR 0.0000
-1.2041 CLOSE COMMAND 0.0000
-1.2041 CLOSE MS -0.1249
-1.2041 CLOSE NOTEPAD 0.0000
-1.2041 CLOSE PAINT 0.0000
-1.2041 CLOSE TASK 0.0000
-0.3010 COMMAND PROMPT 0.0000
-0.3010 CONTROL PANEL 0.0000
-0.3010 DATE IT 0.0000
-0.3010 DEVICE MANAGER 0.0000
-0.3010 EXCEL </s> -0.3010
-0.3010 FACE BOOK 0.0000
-0.3010 FIREWALL </s> -0.3010
-0.3010 GOOGLE </s> -0.3010
-0.3010 HELLO JARVIS 0.0000
-0.7782 IS </s> -0.3010
-0.7782 IS THE 0.0000
-0.7782 IS YOUR 0.0000
-0.3010 IT IS -0.2218
-0.3010 JARVIS </s> -0.3010
-0.3010 MADE YOU -0.1761
-0.3010 MAIL </s> -0.3010
-0.3010 MANAGER </s> -0.3010
-0.3010 MEDIA PLAYER 0.0000
-0.3010 MOVIES </s> -0.3010
-0.7782 MS EXCEL 0.0000
-0.4771 MS WORD -0.1249
-0.3010 NAME </s> -0.3010
-0.3010 NOTEPAD </s> -0.3010
-1.4472 OPEN ACCESS 0.0000
-1.4472 OPEN CALCULATOR 0.0000
-1.4472 OPEN CONTROL 0.0000
-1.4472 OPEN EXCEL 0.0000
-1.4472 OPEN FIREWALL 0.0000
-1.4472 OPEN MEDIA 0.0000
-1.4472 OPEN MOVIES 0.0000
-1.1461 OPEN MS 0.0000
-1.4472 OPEN NOTEPAD 0.0000
-1.4472 OPEN PAINT 0.0000
-1.4472 OPEN PHOTOS 0.0000
-1.4472 OPEN SONGS 0.0000
-1.4472 OPEN WORD -0.2218
-0.3010 OPTIONS </s> -0.3010
-0.3010 PAD </s> -0.3010
-0.3010 PAINT </s> -0.3010
-0.3010 PANEL </s> -0.3010
-0.3010 PHOTOS </s> -0.3010
-0.3010 PLAYER </s> -0.3010
-0.3010 POWER OPTIONS 0.0000
-0.3010 PROGRAM </s> -0.3010
-0.3010 PROMPT </s> -0.3010
-0.3010 RECOGNIZING </s> -0.3010
-0.3010 SECURITY CENTER 0.0000
-0.3010 SETTINGS </s> -0.3010
-0.9031 SITE FACE 0.0000
-0.9031 SITE GOOGLE 0.0000
-0.9031 SITE MAIL 0.0000
-0.9031 SITE YOU -0.1761
-0.3010 SONGS </s> -0.3010
-0.3010 START RECOGNIZING 0.0000
-0.3010 STOP RECOGNIZING 0.0000
-0.3010 TASK MANAGER 0.0000
-0.3010 THE TIME 0.0000
-0.3010 TIME </s> -0.3010
-0.3010 TUBE </s> -0.3010
-0.3010 UNINSTALL A 0.0000
-0.7782 WHAT DATE 0.0000
-0.4771 WHAT IS -0.1249
-0.3010 WHO MADE 0.0000
-0.6021 WINDOWS MEDIA 0.0000
-0.6021 WINDOWS SECURITY 0.0000
-0.4771 WORD </s> -0.3010
-0.7782 WORD PAD 0.0000
-0.6021 YOU </s> -0.3010
-0.6021 YOU TUBE 0.0000
-0.3010 YOUR NAME 0.0000

\3-grams:
-0.3010 <s> BROWSER </s>
-1.2041 <s> CLOSE ACCESS
-1.2041 <s> CLOSE BROWSER
-1.2041 <s> CLOSE CALCULATOR
-1.2041 <s> CLOSE COMMAND
-1.2041 <s> CLOSE MS
-1.2041 <s> CLOSE NOTEPAD
-1.2041 <s> CLOSE PAINT
-1.2041 <s> CLOSE TASK
-0.3010 <s> COMMAND PROMPT
-0.3010 <s> CONTROL PANEL
-0.3010 <s> DEVICE MANAGER
-0.3010 <s> HELLO JARVIS
-1.4472 <s> OPEN ACCESS
-1.4472 <s> OPEN CALCULATOR
-1.4472 <s> OPEN CONTROL
-1.4472 <s> OPEN EXCEL
-1.4472 <s> OPEN FIREWALL
-1.4472 <s> OPEN MEDIA
-1.4472 <s> OPEN MOVIES
-1.1461 <s> OPEN MS
-1.4472 <s> OPEN NOTEPAD
-1.4472 <s> OPEN PAINT
-1.4472 <s> OPEN PHOTOS
-1.4472 <s> OPEN SONGS
-1.4472 <s> OPEN WORD
-0.3010 <s> POWER OPTIONS
-0.3010 <s> SETTINGS </s>
-0.9031 <s> SITE FACE
-0.9031 <s> SITE GOOGLE
-0.9031 <s> SITE MAIL
-0.9031 <s> SITE YOU
-0.3010 <s> START RECOGNIZING
-0.3010 <s> STOP RECOGNIZING
-0.3010 <s> UNINSTALL A
-0.7782 <s> WHAT DATE
-0.4771 <s> WHAT IS
-0.3010 <s> WHO MADE
-0.6021 <s> WINDOWS MEDIA
-0.6021 <s> WINDOWS SECURITY
-0.3010 A PROGRAM </s>
-0.3010 CLOSE ACCESS </s>
-0.3010 CLOSE BROWSER </s>
-0.3010 CLOSE CALCULATOR </s>
-0.3010 CLOSE COMMAND PROMPT
-0.3010 CLOSE MS WORD
-0.3010 CLOSE NOTEPAD </s>
-0.3010 CLOSE PAINT </s>
-0.3010 CLOSE TASK MANAGER
-0.3010 COMMAND PROMPT </s>
-0.3010 CONTROL PANEL </s>
-0.3010 DATE IT IS
-0.3010 DEVICE MANAGER </s>
-0.3010 FACE BOOK </s>
-0.3010 HELLO JARVIS </s>
-0.3010 IS THE TIME
-0.3010 IS YOUR NAME
-0.3010 IT IS </s>
-0.3010 MADE YOU </s>
-0.3010 MEDIA PLAYER </s>
-0.3010 MS EXCEL </s>
-0.3010 MS WORD </s>
-0.3010 OPEN ACCESS </s>
-0.3010 OPEN CALCULATOR </s>
-0.3010 OPEN CONTROL PANEL
-0.3010 OPEN EXCEL </s>
-0.3010 OPEN FIREWALL </s>
-0.3010 OPEN MEDIA PLAYER
-0.3010 OPEN MOVIES </s>
-0.6021 OPEN MS EXCEL
-0.6021 OPEN MS WORD
-0.3010 OPEN NOTEPAD </s>
-0.3010 OPEN PAINT </s>
-0.3010 OPEN PHOTOS </s>
-0.3010 OPEN SONGS </s>
-0.3010 OPEN WORD PAD
-0.3010 POWER OPTIONS </s>
-0.3010 SECURITY CENTER </s>
-0.3010 SITE FACE BOOK
-0.3010 SITE GOOGLE </s>
-0.3010 SITE MAIL </s>
-0.3010 SITE YOU TUBE
-0.3010 START RECOGNIZING </s>
-0.3010 STOP RECOGNIZING </s>
-0.3010 TASK MANAGER </s>
-0.3010 THE TIME </s>
-0.3010 UNINSTALL A PROGRAM
-0.3010 WHAT DATE IT
-0.6021 WHAT IS THE
-0.6021 WHAT IS YOUR
-0.3010 WHO MADE YOU
-0.3010 WINDOWS MEDIA PLAYER
-0.3010 WINDOWS SECURITY CENTER
-0.3010 WORD PAD </s>
-0.3010 YOU TUBE </s>
-0.3010 YOUR NAME </s>

\end\
